net
{
    node_size = (80 40);
    HR_Has_Constraints = "yes";
    HR_DBN_Num_Slices = "5";
    HR_Desc = "";
    HR_OOBN_CheckConsistency = "1";
    HR_OOBN_FitExpand = "1";
    HR_Zoom_ZoomFactor = "100";
    HR_Groups_GroupColors = "";
    HR_Groups_GroupNames = "";
    HR_Groups_UserGroupsNo = "0";
    HR_Utility_Link = "63";
    HR_Probabilistic_Link = "63";
    HR_Functional_Link = "63";
    HR_Binding_Link = "63";
    HR_Information_Arc = "63";
    HR_Color_Interface = "21";
    HR_Color_Instance = "0";
    HR_Color_DiscreteFunction = "5";
    HR_Color_Function = "4";
    HR_Color_Utility = "36";
    HR_Color_Decision = "17";
    HR_Color_ContinuousChance = "48";
    HR_Color_DiscreteChance = "16";
    HR_Monitor_InitSD = "2";
    HR_Monitor_Utility_Arrange = "0";
    HR_Monitor_Mean_Variance = "1";
    HR_Monitor_Chance_Utility = "1";
    HR_Monitor_InitStates = "5";
    HR_Monitor_OpenGraph = "0";
    HR_Monitor_GraphPrecision = "100";
    HR_Monitor_AutoUpdGraph = "0";
    HR_Compile_MaxMinimalSeparators = "100000";
    HR_Compile_ApproxEpsilon = "1.0E-5";
    HR_Compile_Approximate = "0";
    HR_Compile_SaveToMemory = "0";
    HR_Compile_Compress = "0";
    HR_Compile_TriangMethod = "0";
    HR_Propagate_AutoNormal = "1";
    HR_Propagate_AutoSum = "1";
    HR_Propagate_Auto = "1";
    HR_Font_Italic = "0";
    HR_Font_Weight = "400";
    HR_Font_Size = "-12";
    HR_Font_Name = "com.apple.laf.AquaFonts$DerivedUIResourceFont[family=Lucida Grande,name=Lucida Grande,style=plain,size=13]";
    HR_Grid_GridShow = "0";
    HR_Grid_GridSnap = "0";
    HR_Grid_Y = "40";
    HR_Grid_X = "40";
}

node NAP1L1
{
    position = (50 295);
    states = ("no" "yes");
    HR_LinkGroup = "[MDS1:0][ATP2B4:0][PCCB:0][MDK:0][AML:0]";
    HR_LinkMode = "[MDS1:0][ATP2B4:0][PCCB:0][MDK:0][AML:0]";
}

node ATP2B4
{
    position = (112 198);
    states = ("no" "yes");
    HR_LinkGroup = "[PCCB:0][MDK:0][MDS1:0][AML:0]";
    HR_LinkMode = "[PCCB:0][MDK:0][MDS1:0][AML:0]";
}

node PCCB
{
    position = (107 30);
    states = ("yes" "no");
    HR_LinkGroup = "[ATP2B4:0][MDS1:0][MDK:0][AML:0]";
    HR_LinkMode = "[ATP2B4:0][MDS1:0][MDK:0][AML:0]";
}

node MDK
{
    position = (207 114);
    states = ("no" "yes");
    HR_LinkGroup = "[PCCB:0][AML:0][MDS1:0]";
    HR_LinkMode = "[PCCB:0][AML:0][MDS1:0]";
}

node MDS1
{
    position = (52 114);
    states = ("yes" "no");
    HR_LinkGroup = "[AML:0]";
    HR_LinkMode = "[AML:0]";
}

node AML
{
    position = (203 292);
    states = ("no" "yes");
    HR_LinkGroup = "[NAP1L1:0]";
    HR_LinkMode = "[NAP1L1:0]";
}

potential (NAP1L1 | AML)
{
    data
     = (( 0.653846 0.346154 )	%  AML=no
	( 0.975 0.025 ));	%  AML=yes
    experience
     = ( 39	%  AML=no
	 20 );	%  AML=yes
}

potential (ATP2B4 | PCCB)
{
    data
     = (( 0.734043 0.265957 )	%  PCCB=yes
	( 0.958333 0.0416667 ));	%  PCCB=no
    experience
     = ( 47	%  PCCB=yes
	 12 );	%  PCCB=no
}

potential (PCCB | MDK)
{
    data
     = (( 0.861702 0.138298 )	%  MDK=no
	( 0.541667 0.458333 ));	%  MDK=yes
    experience
     = ( 47	%  MDK=no
	 12 );	%  MDK=yes
}

potential (MDK)
{
    data = ( 0.801724 0.198276 );
    experience = 58;
}

potential (MDS1 | NAP1L1 PCCB)
{
    data
     = ((( 0.986111 0.0138889 )	%  NAP1L1=no  PCCB=yes
	 ( 0.45 0.55 ))	%  NAP1L1=no  PCCB=no
	(( 0.541667 0.458333 )	%  NAP1L1=yes  PCCB=yes
	 ( 0.833333 0.166667 )));	%  NAP1L1=yes  PCCB=no
    experience
     = (( 36	%  NAP1L1=no  PCCB=yes
	  10 )	%  NAP1L1=no  PCCB=no
	( 12	%  NAP1L1=yes  PCCB=yes
	  3 ));	%  NAP1L1=yes  PCCB=no
}

potential (AML | MDK)
{
    data
     = (( 0.585106 0.414894 )	%  MDK=no
	( 0.958333 0.0416667 ));	%  MDK=yes
    experience
     = ( 47	%  MDK=no
	 12 );	%  MDK=yes
}
