net
{
    node_size = (80 40);
    HR_Has_Constraints = "yes";
    HR_DBN_Num_Slices = "5";
    HR_Desc = "";
    HR_OOBN_CheckConsistency = "1";
    HR_OOBN_FitExpand = "1";
    HR_Zoom_ZoomFactor = "100";
    HR_Groups_GroupColors = "";
    HR_Groups_GroupNames = "";
    HR_Groups_UserGroupsNo = "0";
    HR_Utility_Link = "63";
    HR_Probabilistic_Link = "63";
    HR_Functional_Link = "63";
    HR_Binding_Link = "63";
    HR_Information_Arc = "63";
    HR_Color_Interface = "21";
    HR_Color_Instance = "0";
    HR_Color_DiscreteFunction = "5";
    HR_Color_Function = "4";
    HR_Color_Utility = "36";
    HR_Color_Decision = "17";
    HR_Color_ContinuousChance = "48";
    HR_Color_DiscreteChance = "16";
    HR_Monitor_InitSD = "2";
    HR_Monitor_Utility_Arrange = "0";
    HR_Monitor_Mean_Variance = "1";
    HR_Monitor_Chance_Utility = "1";
    HR_Monitor_InitStates = "5";
    HR_Monitor_OpenGraph = "0";
    HR_Monitor_GraphPrecision = "100";
    HR_Monitor_AutoUpdGraph = "0";
    HR_Compile_MaxMinimalSeparators = "100000";
    HR_Compile_ApproxEpsilon = "1.0E-5";
    HR_Compile_Approximate = "0";
    HR_Compile_SaveToMemory = "0";
    HR_Compile_Compress = "0";
    HR_Compile_TriangMethod = "0";
    HR_Propagate_AutoNormal = "1";
    HR_Propagate_AutoSum = "1";
    HR_Propagate_Auto = "1";
    HR_Font_Italic = "0";
    HR_Font_Weight = "400";
    HR_Font_Size = "-12";
    HR_Font_Name = "com.apple.laf.AquaFonts$DerivedUIResourceFont[family=Lucida Grande,name=Lucida Grande,style=plain,size=13]";
    HR_Grid_GridShow = "0";
    HR_Grid_GridSnap = "0";
    HR_Grid_Y = "40";
    HR_Grid_X = "40";
}

node NAP1L1
{
    position = (133 131);
    states = ("no" "yes");
    HR_LinkGroup = "[AML:0][ATP2B4:0][PCCB:0][MDK:0][MDS1:0]";
    HR_LinkMode = "[AML:0][ATP2B4:0][PCCB:0][MDK:0][MDS1:0]";
}

node ATP2B4
{
    position = (280 132);
    states = ("no" "yes");
    HR_LinkGroup = "[AML:0][PCCB:0][MDK:0][MDS1:0]";
    HR_LinkMode = "[AML:0][PCCB:0][MDK:0][MDS1:0]";
}

node PCCB
{
    position = (281 210);
    states = ("yes" "no");
    HR_LinkGroup = "[ATP2B4:0][AML:0][MDK:0][MDS1:0]";
    HR_LinkMode = "[ATP2B4:0][AML:0][MDK:0][MDS1:0]";
}

node MDK
{
    position = (364 33);
    states = ("no" "yes");
    HR_LinkGroup = "[AML:0][MDS1:0]";
    HR_LinkMode = "[AML:0][MDS1:0]";
}

node MDS1
{
    position = (50 34);
    states = ("yes" "no");
    HR_LinkGroup = "[AML:0]";
    HR_LinkMode = "[AML:0]";
}

node AML
{
    position = (210 32);
    states = ("no" "yes");
}

potential (NAP1L1)
{
    data = ( 0.767241 0.232759 );
    experience = 58;
}

potential (ATP2B4 | PCCB)
{
    data
     = (( 0.734043 0.265957 )	%  PCCB=yes
	( 0.958333 0.0416667 ));	%  PCCB=no
    experience
     = ( 47	%  PCCB=yes
	 12 );	%  PCCB=no
}

potential (PCCB)
{
    data = ( 0.801724 0.198276 );
    experience = 58;
}

potential (MDK)
{
    data = ( 0.801724 0.198276 );
    experience = 58;
}

potential (MDS1)
{
    data = ( 0.818966 0.181034 );
    experience = 58;
}

potential (AML | MDS1 MDK ATP2B4 NAP1L1)
{
    data
     = ((((( 0.362069 0.637931 )	%  MDS1=yes  MDK=no  ATP2B4=no  NAP1L1=no
	   ( 0.9 0.1 ))	%  MDS1=yes  MDK=no  ATP2B4=no  NAP1L1=yes
	  (( 0.785714 0.214286 )	%  MDS1=yes  MDK=no  ATP2B4=yes  NAP1L1=no
	   ( 0.75 0.25 )))	%  MDS1=yes  MDK=no  ATP2B4=yes  NAP1L1=yes
	 ((( 0.875 0.125 )	%  MDS1=yes  MDK=yes  ATP2B4=no  NAP1L1=no
	   ( 0.875 0.125 ))	%  MDS1=yes  MDK=yes  ATP2B4=no  NAP1L1=yes
	  (( 0.833333 0.166667 )	%  MDS1=yes  MDK=yes  ATP2B4=yes  NAP1L1=no
	   ( 0.5 0.5 ))))	%  MDS1=yes  MDK=yes  ATP2B4=yes  NAP1L1=yes
	(((( 0.833333 0.166667 )	%  MDS1=no  MDK=no  ATP2B4=no  NAP1L1=no
	   ( 0.833333 0.166667 ))	%  MDS1=no  MDK=no  ATP2B4=no  NAP1L1=yes
	  (( 0.5 0.5 )	%  MDS1=no  MDK=no  ATP2B4=yes  NAP1L1=no
	   ( 0.875 0.125 )))	%  MDS1=no  MDK=no  ATP2B4=yes  NAP1L1=yes
	 ((( 0.875 0.125 )	%  MDS1=no  MDK=yes  ATP2B4=no  NAP1L1=no
	   ( 0.5 0.5 ))	%  MDS1=no  MDK=yes  ATP2B4=no  NAP1L1=yes
	  (( 0.5 0.5 )	%  MDS1=no  MDK=yes  ATP2B4=yes  NAP1L1=no
	   ( 0.5 0.5 )))));	%  MDS1=no  MDK=yes  ATP2B4=yes  NAP1L1=yes
    experience
     = (((( 29	%  MDS1=yes  MDK=no  ATP2B4=no  NAP1L1=no
	    5 )	%  MDS1=yes  MDK=no  ATP2B4=no  NAP1L1=yes
	  ( 7	%  MDS1=yes  MDK=no  ATP2B4=yes  NAP1L1=no
	    2 ))	%  MDS1=yes  MDK=no  ATP2B4=yes  NAP1L1=yes
	 (( 4	%  MDS1=yes  MDK=yes  ATP2B4=no  NAP1L1=no
	    4 )	%  MDS1=yes  MDK=yes  ATP2B4=no  NAP1L1=yes
	  ( 3	%  MDS1=yes  MDK=yes  ATP2B4=yes  NAP1L1=no
	    1 )))	%  MDS1=yes  MDK=yes  ATP2B4=yes  NAP1L1=yes
	((( 3	%  MDS1=no  MDK=no  ATP2B4=no  NAP1L1=no
	    3 )	%  MDS1=no  MDK=no  ATP2B4=no  NAP1L1=yes
	  ( 1	%  MDS1=no  MDK=no  ATP2B4=yes  NAP1L1=no
	    4 ))	%  MDS1=no  MDK=no  ATP2B4=yes  NAP1L1=yes
	 (( 4	%  MDS1=no  MDK=yes  ATP2B4=no  NAP1L1=no
	    1 )	%  MDS1=no  MDK=yes  ATP2B4=no  NAP1L1=yes
	  ( 1	%  MDS1=no  MDK=yes  ATP2B4=yes  NAP1L1=no
	    1 ))));	%  MDS1=no  MDK=yes  ATP2B4=yes  NAP1L1=yes
}
